{
  "trainedNetwork": {
    "type": "NeuralNetwork",
    "sizes": [
      130,
      3,
      3
    ],
    "layers": [
      {
        "weights": [],
        "biases": []
      },
      {
        "weights": [
          [
            0.3639603555202484,
            0.3201441466808319,
            0.18394140899181366,
            0.7596997618675232,
            1.2598158121109009,
            0.9692702293395996,
            0.49302932620048523,
            -0.1982877403497696,
            0.1411990523338318,
            1.0181187391281128,
            0.5392132997512817,
            0.21236829459667206,
            -0.5079019665718079,
            0.09345918893814087,
            -0.037742551416158676,
            -0.5839871764183044,
            -0.24278739094734192,
            -0.18214596807956696,
            -0.6523333787918091,
            -0.6766452193260193,
            -0.17208601534366608,
            -0.22005736827850342,
            0.061254337430000305,
            -0.09532176703214645,
            -0.3944297432899475,
            -0.3853698968887329,
            -0.44814950227737427,
            -0.31870439648628235,
            0.16530710458755493,
            -0.3871661424636841,
            -0.7846529483795166,
            -0.7739354968070984,
            0.10423879325389862,
            -0.11353625357151031,
            -0.24750970304012299,
            -0.2968868315219879,
            -0.9730357527732849,
            -0.1798243671655655,
            -0.022706009447574615,
            -0.4058432877063751,
            -0.5451219081878662,
            -0.47858643531799316,
            -0.41683563590049744,
            -0.480132520198822,
            -0.519327700138092,
            -0.2442135065793991,
            -0.3936329782009125,
            0.05134007707238197,
            -0.740471601486206,
            -0.7933328151702881,
            0.6176019906997681,
            0.3975791931152344,
            0.5246143937110901,
            0.6521634459495544,
            -0.07014375180006027,
            0.17900888621807098,
            -0.06060667708516121,
            0.3822639286518097,
            0.6902409195899963,
            -0.03850334510207176,
            -0.5403535962104797,
            -0.4230853319168091,
            -0.4486951231956482,
            -0.42074376344680786,
            0.23101237416267395,
            0.30413514375686646,
            0.1354042887687683,
            0.022868778556585312,
            -0.1460418403148651,
            -0.39956945180892944,
            -0.6951553225517273,
            -0.469645231962204,
            -0.018544381484389305,
            0.48584598302841187,
            0.6586105823516846,
            0.32852673530578613,
            -0.21601355075836182,
            0.17638693749904633,
            -0.051670026034116745,
            0.49131742119789124,
            -0.29905858635902405,
            0.09654530137777328,
            0.07087519019842148,
            0.28665000200271606,
            0.019040049985051155,
            0.2979183793067932,
            0.4408571720123291,
            0.43521055579185486,
            0.4951445162296295,
            0.22891061007976532,
            0.1121165007352829,
            0.3922772705554962,
            0.1363910287618637,
            -0.3057105243206024,
            -0.8631643652915955,
            -0.8320829272270203,
            -0.749301552772522,
            0.1572188138961792,
            -0.09349197894334793,
            0.13114617764949799,
            0.631069004535675,
            0.11554919928312302,
            0.601936399936676,
            0.15210816264152527,
            0.24708127975463867,
            0.5617275834083557,
            0.3346182703971863,
            0.6276162266731262,
            0.275047242641449,
            0.45926421880722046,
            0.3757311999797821,
            0.4731080234050751,
            0.46510401368141174,
            0.2861957550048828,
            -0.1941727101802826,
            0.05364665016531944,
            -0.20763038098812103,
            -0.058922797441482544,
            0.10398750752210617,
            0.14988474547863007,
            -0.04564828425645828,
            -0.0859731137752533,
            -0.11859763413667679,
            -0.16011874377727509,
            -0.5754278302192688,
            -0.41560518741607666,
            -0.05201851949095726,
            -0.20379604399204254,
            0.03237506002187729,
            0.01999412290751934
          ],
          [
            -0.41115203499794006,
            0.03890347108244896,
            -0.5871807932853699,
            0.08318966627120972,
            -1.0445362329483032,
            -0.967643678188324,
            0.5695157051086426,
            0.2924082279205322,
            0.5822587609291077,
            1.0604697465896606,
            0.3804175555706024,
            0.35083886981010437,
            0.17991086840629578,
            -0.4495972692966461,
            0.09480282664299011,
            0.6436203122138977,
            1.3210943937301636,
            0.3342580497264862,
            0.31037870049476624,
            -0.4513745903968811,
            -0.7700880169868469,
            -0.5471825003623962,
            0.3392258584499359,
            0.3937394618988037,
            -0.05517090857028961,
            -0.2405659258365631,
            -0.02557452581822872,
            -0.27506962418556213,
            -0.07975950092077255,
            0.3027436137199402,
            0.9467187523841858,
            0.7640625238418579,
            -0.9400126338005066,
            0.1362619251012802,
            -0.42034128308296204,
            -0.7989403605461121,
            -0.25229397416114807,
            -0.46594008803367615,
            -0.842768132686615,
            0.4782317578792572,
            -0.41947823762893677,
            -0.41863498091697693,
            -0.565995991230011,
            -0.5575551390647888,
            -0.37227821350097656,
            -0.6612724661827087,
            -0.5061909556388855,
            0.4150729179382324,
            0.842232346534729,
            0.5229489803314209,
            -0.11365963518619537,
            -0.5188931822776794,
            -0.6591901183128357,
            -1.0320366621017456,
            0.09863694757223129,
            0.290824294090271,
            -0.1571131944656372,
            0.4298303723335266,
            0.3137778043746948,
            -0.06513985246419907,
            -0.2607724666595459,
            -0.49311187863349915,
            -0.43640798330307007,
            0.029313642531633377,
            -0.08197135478258133,
            0.3719726800918579,
            -0.36572030186653137,
            0.27754348516464233,
            0.16948366165161133,
            -0.30678150057792664,
            -0.11103624105453491,
            -0.36978012323379517,
            -0.16525845229625702,
            0.3990246057510376,
            -0.014789954759180546,
            -0.2212936282157898,
            0.23041480779647827,
            0.45627081394195557,
            0.2230517864227295,
            -0.4483817517757416,
            -0.36071962118148804,
            -0.25802740454673767,
            0.027394168078899384,
            -0.20982052385807037,
            0.0008572239894419909,
            0.05927964672446251,
            -0.30457496643066406,
            -0.18701018393039703,
            0.2496200054883957,
            0.49263492226600647,
            0.29169321060180664,
            0.16884055733680725,
            0.18152473866939545,
            0.22875946760177612,
            0.8315443396568298,
            0.6309219002723694,
            0.656582236289978,
            0.7294511795043945,
            0.13279251754283905,
            0.9039613008499146,
            0.586453914642334,
            0.14705750346183777,
            0.6508249640464783,
            -0.12077831476926804,
            -0.262274831533432,
            -0.2791299521923065,
            -0.5585412383079529,
            -0.5693025588989258,
            -0.24607820808887482,
            0.05417053401470184,
            -0.06260452419519424,
            0.16507083177566528,
            -0.08632006496191025,
            -0.02663607895374298,
            -0.09379918873310089,
            -0.18419380486011505,
            0.06349575519561768,
            -0.0034352948423475027,
            -0.11688236892223358,
            0.08466184139251709,
            -0.19829827547073364,
            -0.7075636386871338,
            -0.6858648657798767,
            -0.5530533790588379,
            -0.38840463757514954,
            -0.41367974877357483,
            -0.34759166836738586,
            -0.29354414343833923,
            -0.5785085558891296,
            -0.08717547357082367
          ],
          [
            -0.6253073215484619,
            -0.5344561338424683,
            0.3519732356071472,
            -1.1931618452072144,
            -0.16873687505722046,
            -0.3721824586391449,
            -0.33883780241012573,
            -0.14782841503620148,
            1.091713786125183,
            0.07715696841478348,
            0.9860088229179382,
            0.9354482889175415,
            -0.3711957633495331,
            -0.05762770399451256,
            -0.0790732204914093,
            -0.48434457182884216,
            -0.9740758538246155,
            0.23600009083747864,
            -0.6201530694961548,
            -0.055329542607069016,
            0.582571804523468,
            0.3200575113296509,
            -0.6770753264427185,
            -0.5551128387451172,
            0.1763642132282257,
            0.10401973128318787,
            -0.038947150111198425,
            0.5242348909378052,
            0.019471896812319756,
            -0.7341203689575195,
            -0.890666663646698,
            -0.414626806974411,
            -0.8689783215522766,
            0.36769482493400574,
            -0.47176671028137207,
            -0.14296318590641022,
            -0.15131008625030518,
            -0.395476758480072,
            -0.13857899606227875,
            0.1546611189842224,
            0.2328965812921524,
            -0.2197759747505188,
            -0.37922030687332153,
            -0.3870443105697632,
            -0.5063164830207825,
            -0.16518203914165497,
            -0.3278231620788574,
            -0.1403147280216217,
            0.8729439377784729,
            0.9039850234985352,
            -0.0060449098236858845,
            0.394461989402771,
            0.6540197730064392,
            0.2741355299949646,
            0.9872552156448364,
            -0.3816030025482178,
            -0.3011675477027893,
            -0.6130534410476685,
            -0.6270375847816467,
            -0.17740777134895325,
            0.6414900422096252,
            0.7894929647445679,
            0.5691967010498047,
            0.2758289873600006,
            -0.15176184475421906,
            0.1424616277217865,
            0.09603238105773926,
            -0.03933759778738022,
            0.07567918300628662,
            -0.03834572434425354,
            0.49318718910217285,
            0.45133575797080994,
            0.28015923500061035,
            0.13467834889888763,
            -0.376970499753952,
            -0.17226506769657135,
            -0.05374089255928993,
            -0.41102033853530884,
            -0.051756177097558975,
            0.06961748749017715,
            -0.4168817102909088,
            -0.4465108811855316,
            -0.12643738090991974,
            -0.34577417373657227,
            -0.2128312587738037,
            -0.4590420424938202,
            -0.15036359429359436,
            -0.4946136176586151,
            -0.2646278142929077,
            -0.24741210043430328,
            -0.49440518021583557,
            -0.18697504699230194,
            -0.20138372480869293,
            0.11317000538110733,
            0.21855540573596954,
            0.07259427011013031,
            0.24808292090892792,
            -0.17414553463459015,
            -0.03384614363312721,
            -0.32443326711654663,
            -0.2018469274044037,
            0.08423850685358047,
            -0.29690229892730713,
            0.010229211300611496,
            0.38640767335891724,
            0.31779754161834717,
            0.31483718752861023,
            0.24358989298343658,
            -0.03249698132276535,
            0.1368696093559265,
            -0.055268965661525726,
            0.13681498169898987,
            -0.05681496858596802,
            0.3599626123905182,
            0.22102795541286469,
            0.4221493899822235,
            0.15126284956932068,
            0.14161863923072815,
            0.1321670114994049,
            0.42374855279922485,
            0.28850263357162476,
            0.3156147599220276,
            0.11766482144594193,
            0.32827556133270264,
            0.7114965915679932,
            0.5033292174339294,
            0.19870860874652863,
            0.24038593471050262,
            0.07428237050771713,
            0.11092105507850647
          ]
        ],
        "biases": [
          0.23275600373744965,
          -0.13263125717639923,
          0.23123033344745636
        ]
      },
      {
        "weights": [
          [
            1.095193862915039,
            -6.264073848724365,
            1.7623244524002075
          ],
          [
            -5.6613450050354,
            0.5470417141914368,
            0.5039945840835571
          ],
          [
            -0.9155187606811523,
            -0.16157706081867218,
            5.564691066741943
          ]
        ],
        "biases": [
          1.4932221174240112,
          2.0102105140686035,
          -2.212007999420166
        ]
      }
    ],
    "inputLookup": {
      "r": 0,
      "e": 1,
      "d": 2,
      "re": 3,
      "ed": 4,
      "d ": 5,
      "b": 6,
      "l": 7,
      "u": 8,
      "bl": 9,
      "lu": 10,
      "ue": 11,
      "e ": 12,
      "g": 13,
      "n": 14,
      "gr": 15,
      "ee": 16,
      "en": 17,
      "n ": 18,
      "i": 19,
      "h": 20,
      "t": 21,
      "br": 22,
      "ri": 23,
      "ig": 24,
      "gh": 25,
      "ht": 26,
      "t ": 27,
      "m": 28,
      "li": 29,
      "im": 30,
      "me": 31,
      "o": 32,
      "a": 33,
      "or": 34,
      "ra": 35,
      "an": 36,
      "ng": 37,
      "ge": 38,
      "y": 39,
      "w": 40,
      "ye": 41,
      "el": 42,
      "ll": 43,
      "lo": 44,
      "ow": 45,
      "w ": 46,
      "c": 47,
      "cy": 48,
      "ya": 49,
      "ma": 50,
      "ag": 51,
      "nt": 52,
      "ta": 53,
      "a ": 54,
      "k": 55,
      "la": 56,
      "ac": 57,
      "ck": 58,
      "k ": 59,
      "wh": 60,
      "hi": 61,
      "it": 62,
      "te": 63,
      "s": 64,
      "v": 65,
      "si": 66,
      "il": 67,
      "lv": 68,
      "ve": 69,
      "er": 70,
      "r ": 71,
      "ay": 72,
      "y ": 73,
      "ro": 74,
      "wn": 75,
      "da": 76,
      "ar": 77,
      "rk": 78,
      "ch": 79,
      "ho": 80,
      "oc": 81,
      "co": 82,
      "ol": 83,
      "at": 84,
      "oo": 85,
      "on": 86,
      "iv": 87,
      "kn": 88,
      "ne": 89,
      "es": 90,
      "ss": 91,
      "s ": 92,
      "q": 93,
      "aq": 94,
      "qu": 95,
      "ua": 96,
      "ea": 97,
      "al": 98,
      "l ": 99,
      "na": 100,
      "av": 101,
      "vy": 102,
      "f": 103,
      "fu": 104,
      "uc": 105,
      "hs": 106,
      "ia": 107,
      "p": 108,
      "pu": 109,
      "ur": 110,
      "rp": 111,
      "pl": 112,
      "le": 113,
      "di": 114,
      "iu": 115,
      "um": 116,
      "m ": 117,
      "vi": 118,
      "io": 119,
      "et": 120,
      "sa": 121,
      "lm": 122,
      "mo": 123,
      "nd": 124,
      "de": 125,
      "pi": 126,
      "in": 127,
      "nk": 128,
      "ot": 129
    },
    "inputLookupLength": 130,
    "outputLookup": {
      "r": 0,
      "g": 1,
      "b": 2
    },
    "outputLookupLength": 3,
    "options": {
      "inputSize": 0,
      "outputSize": 0,
      "binaryThresh": 0.5,
      "hiddenLayers": [
        3
      ],
      "activation": "sigmoid",
      "leakyReluAlpha": 0.01,
      "log": true,
      "logPeriod": 100
    },
    "trainOpts": {
      "activation": "sigmoid",
      "iterations": 20000,
      "errorThresh": 0.005,
      "log": true,
      "logPeriod": 100,
      "leakyReluAlpha": 0.01,
      "learningRate": 0.3,
      "momentum": 0.1,
      "callbackPeriod": 10,
      "timeout": "Infinity",
      "beta1": 0.9,
      "beta2": 0.999,
      "epsilon": 1e-8
    }
  },
  "encoderDictionary": [
    "red",
    "blue",
    "green",
    "bright",
    "lime",
    "orange",
    "yellow",
    "cyan",
    "magenta",
    "black",
    "white",
    "silver",
    "gray",
    "brown",
    "dark",
    "tan",
    "chocolate",
    "light",
    "maroon",
    "olive",
    "darkness",
    "aqua",
    "teal",
    "navy",
    "fuchsia",
    "purple",
    "medium",
    "violet",
    "salmon",
    "lavender",
    "pink",
    "hot"
  ]
}