{
  "trainedNetwork": {
    "type": "NeuralNetwork",
    "sizes": [
      55,
      3,
      3
    ],
    "layers": [
      {
        "weights": [],
        "biases": []
      },
      {
        "weights": [
          [
            -0.41978058218955994,
            -0.6535055041313171,
            -0.5002852082252502,
            0.18692238628864288,
            -0.8842307925224304,
            -0.7817830443382263,
            0.10566695034503937,
            0.3099170923233032,
            0.8282759189605713,
            0.780423641204834,
            0.24374738335609436,
            1.3213913440704346,
            0.5301863551139832,
            0.39125746488571167,
            0.23602408170700073,
            1.2340763807296753,
            0.8454738259315491,
            0.7479124069213867,
            -0.41531357169151306,
            -0.47991183400154114,
            0.15926815569400787,
            -0.5429252982139587,
            -0.5254245400428772,
            0.08712196350097656,
            -0.4912474453449249,
            -0.8858199715614319,
            0.1397695392370224,
            -0.3827655613422394,
            -0.45463359355926514,
            -0.4718865752220154,
            -0.6231902241706848,
            -0.5773670077323914,
            -0.4890623688697815,
            -0.2539862096309662,
            0.48774442076683044,
            0.4313986897468567,
            0.4702451825141907,
            -0.37048617005348206,
            -0.39343318343162537,
            -0.4534684121608734,
            -0.6429392099380493,
            -0.5696374773979187,
            -0.5515023469924927,
            -0.5201393365859985,
            0.31793469190597534,
            0.6446149945259094,
            0.3789115846157074,
            0.45186734199523926,
            0.4555136561393738,
            -0.3280341923236847,
            -0.47410252690315247,
            -0.7103874087333679,
            -0.7143638134002686,
            -0.6738463044166565,
            -0.6154846549034119
          ],
          [
            0.8606221675872803,
            0.0379919558763504,
            0.2541918456554413,
            0.8870250582695007,
            0.09657414257526398,
            0.41974160075187683,
            0.5711381435394287,
            0.1448478400707245,
            0.9337618350982666,
            0.8004556894302368,
            -0.14309576153755188,
            0.0029723020270466805,
            -0.3912629187107086,
            -0.041604410856962204,
            -0.5459409356117249,
            -0.3990391194820404,
            -0.9246546626091003,
            -0.9776255488395691,
            -0.6995557546615601,
            0.5463131070137024,
            -0.06395259499549866,
            0.9256960153579712,
            0.6174769997596741,
            -0.19199368357658386,
            0.9582945704460144,
            0.27571746706962585,
            -0.1989593803882599,
            0.24260564148426056,
            0.6646808385848999,
            0.59898442029953,
            0.5896688103675842,
            0.54900062084198,
            0.7400221228599548,
            0.5007321238517761,
            -0.1958492547273636,
            -0.9465851783752441,
            -0.7257575988769531,
            -0.3267931044101715,
            -0.5594238638877869,
            -0.749723494052887,
            -0.9129446148872375,
            -0.8617623448371887,
            -0.5819438099861145,
            -0.8086065053939819,
            0.3572619557380676,
            0.5201824307441711,
            0.7019835710525513,
            0.70848548412323,
            0.49291831254959106,
            0.0077705890871584415,
            -0.20004989206790924,
            -0.14946626126766205,
            -0.2379666119813919,
            -0.30825355648994446,
            -0.4188386797904968
          ],
          [
            0.1962462216615677,
            0.337922066450119,
            0.7347809076309204,
            0.4864002764225006,
            1.173293948173523,
            1.2675034999847412,
            -0.22457610070705414,
            -0.29861485958099365,
            -0.6435837149620056,
            -0.5373330116271973,
            -0.16346894204616547,
            -1.4136074781417847,
            0.582405149936676,
            0.3136898875236511,
            0.1027173101902008,
            0.8700345754623413,
            0.07949837297201157,
            0.35453787446022034,
            -0.27592840790748596,
            -0.27536559104919434,
            -0.09260784089565277,
            0.12744854390621185,
            0.03352198377251625,
            -0.8913406133651733,
            0.12248513847589493,
            0.5578754544258118,
            -0.621875524520874,
            -0.4372909665107727,
            -0.27390679717063904,
            -0.28086143732070923,
            -0.4212511479854584,
            -0.30441275238990784,
            -0.33387044072151184,
            -0.17196935415267944,
            -0.04078369215130806,
            -0.6422924399375916,
            -0.6650850772857666,
            0.3667972683906555,
            -0.131134033203125,
            0.20377258956432343,
            0.14684659242630005,
            0.5068968534469604,
            0.4484090805053711,
            0.3339153826236725,
            0.35917526483535767,
            0.5625861287117004,
            0.7504452466964722,
            0.5231939554214478,
            0.7010780572891235,
            -0.5167577862739563,
            -0.5259538888931274,
            -0.9091500639915466,
            -0.7763532400131226,
            -0.6076897978782654,
            -0.9147325158119202
          ]
        ],
        "biases": [
          -0.06602802872657776,
          -0.024700794368982315,
          -0.06713919341564178
        ]
      },
      {
        "weights": [
          [
            -6.082552909851074,
            1.0276291370391846,
            0.7334079742431641
          ],
          [
            0.21802136301994324,
            1.7863913774490356,
            -6.084778308868408
          ],
          [
            0.2347947210073471,
            -5.883859634399414,
            -0.6276426315307617
          ]
        ],
        "biases": [
          2.0179855823516846,
          1.8654240369796753,
          2.9505326747894287
        ]
      }
    ],
    "inputLookup": {
      "r": 0,
      "e": 1,
      "d": 2,
      "re": 3,
      "ed": 4,
      "d ": 5,
      "g": 6,
      "n": 7,
      "gr": 8,
      "ee": 9,
      "en": 10,
      "n ": 11,
      "b": 12,
      "l": 13,
      "u": 14,
      "bl": 15,
      "lu": 16,
      "ue": 17,
      "e ": 18,
      "o": 19,
      "a": 20,
      "or": 21,
      "ra": 22,
      "an": 23,
      "ng": 24,
      "ge": 25,
      "y": 26,
      "w": 27,
      "ye": 28,
      "el": 29,
      "ll": 30,
      "lo": 31,
      "ow": 32,
      "w ": 33,
      "c": 34,
      "cy": 35,
      "ya": 36,
      "m": 37,
      "t": 38,
      "ma": 39,
      "ag": 40,
      "nt": 41,
      "ta": 42,
      "a ": 43,
      "k": 44,
      "la": 45,
      "ac": 46,
      "ck": 47,
      "k ": 48,
      "h": 49,
      "i": 50,
      "wh": 51,
      "hi": 52,
      "it": 53,
      "te": 54
    },
    "inputLookupLength": 55,
    "outputLookup": {
      "r": 0,
      "g": 1,
      "b": 2
    },
    "outputLookupLength": 3,
    "options": {
      "inputSize": 0,
      "outputSize": 0,
      "binaryThresh": 0.5,
      "hiddenLayers": [
        3
      ],
      "activation": "sigmoid",
      "leakyReluAlpha": 0.01,
      "log": true,
      "logPeriod": 100
    },
    "trainOpts": {
      "activation": "sigmoid",
      "iterations": 20000,
      "errorThresh": 0.005,
      "log": true,
      "logPeriod": 100,
      "leakyReluAlpha": 0.01,
      "learningRate": 0.3,
      "momentum": 0.1,
      "callbackPeriod": 10,
      "timeout": "Infinity",
      "beta1": 0.9,
      "beta2": 0.999,
      "epsilon": 1e-8
    }
  }
}