{
  "trainedNetwork": {
    "type": "NeuralNetwork",
    "sizes": [
      55,
      3,
      3
    ],
    "layers": [
      {
        "weights": [],
        "biases": []
      },
      {
        "weights": [
          [
            0.027067959308624268,
            0.5089601874351501,
            0.278489351272583,
            -0.006300909444689751,
            0.6134350895881653,
            0.6089296936988831,
            -0.09929513931274414,
            -0.06471343338489532,
            -0.7457064390182495,
            -0.6820675730705261,
            -0.4447871446609497,
            -0.8920169472694397,
            -0.6440712809562683,
            -0.34617701172828674,
            -0.38047298789024353,
            -1.4777921438217163,
            -0.9568716287612915,
            -0.8778939247131348,
            0.24872590601444244,
            0.6492781639099121,
            -0.02234397642314434,
            0.620549201965332,
            0.45024433732032776,
            0.2737747132778168,
            0.4424312114715576,
            0.6678749918937683,
            -0.14630557596683502,
            0.7147803902626038,
            0.4023463726043701,
            0.6467275023460388,
            0.6414270401000977,
            0.43982115387916565,
            0.33398500084877014,
            0.4846767485141754,
            -0.3987032473087311,
            -0.4990084767341614,
            -0.5496652722358704,
            0.3080301582813263,
            0.5420682430267334,
            0.30560314655303955,
            0.3308055102825165,
            0.31278300285339355,
            0.45601731538772583,
            0.42367568612098694,
            -0.16258491575717926,
            -0.3886784017086029,
            -0.45355984568595886,
            -0.7473956346511841,
            -0.742920458316803,
            0.23617832362651825,
            0.13289101421833038,
            0.6128333806991577,
            0.6679790616035461,
            0.7740251421928406,
            0.607678234577179
          ],
          [
            0.8489205241203308,
            0.2532172203063965,
            0.07331926375627518,
            1.0460318326950073,
            0.35528889298439026,
            0.3847193419933319,
            0.3232877850532532,
            -0.039541784673929214,
            0.8141767978668213,
            0.700351357460022,
            0.0076327016577124596,
            -0.16797606647014618,
            -0.018181519582867622,
            0.028987115249037743,
            -0.6664395332336426,
            -0.5313639044761658,
            -1.0468113422393799,
            -1.1156212091445923,
            -0.6240110993385315,
            0.5534710884094238,
            -0.09464190900325775,
            0.8783583045005798,
            0.7645549178123474,
            -0.10561908036470413,
            0.9101223349571228,
            0.20810247957706451,
            -0.21655488014221191,
            -0.1609601080417633,
            0.48641055822372437,
            0.6083120703697205,
            0.5139922499656677,
            0.6519275903701782,
            0.7245984077453613,
            0.4740820825099945,
            -0.09368839859962463,
            -1.1414334774017334,
            -1.0748991966247559,
            -0.33878040313720703,
            -0.451572060585022,
            -0.7709094285964966,
            -0.6555212736129761,
            -0.7707694172859192,
            -0.7361368536949158,
            -0.6910344362258911,
            0.38787853717803955,
            0.8730804920196533,
            0.5577464699745178,
            0.65340656042099,
            0.514387845993042,
            -0.15655088424682617,
            -0.259389728307724,
            -0.6019187569618225,
            -0.3377001881599426,
            -0.5731335878372192,
            -0.4326165020465851
          ],
          [
            0.20514902472496033,
            0.4449518918991089,
            0.5599064826965332,
            0.623802661895752,
            1.2838690280914307,
            1.1995422840118408,
            -0.12719596922397614,
            -0.41424351930618286,
            -0.874579131603241,
            -0.9358026385307312,
            -0.4327765107154846,
            -1.7669059038162231,
            0.3361712694168091,
            0.2520008385181427,
            -0.0005845482228323817,
            0.5651581287384033,
            0.3960936367511749,
            0.012249463237822056,
            -0.20456185936927795,
            -0.06513840705156326,
            0.009958451613783836,
            -0.11467098444700241,
            0.1112564206123352,
            -0.6670799255371094,
            0.19847136735916138,
            0.42772048711776733,
            -0.47058624029159546,
            -0.4625513255596161,
            -0.3163214325904846,
            -0.3399741053581238,
            -0.3649599850177765,
            -0.06784326583147049,
            -0.31578904390335083,
            -0.1617082953453064,
            -0.23887203633785248,
            -0.7930759191513062,
            -0.8500495553016663,
            0.1783791482448578,
            0.091982901096344,
            0.6250695586204529,
            0.6737537980079651,
            0.6022843718528748,
            0.7470881342887878,
            0.6130837798118591,
            0.05745028331875801,
            0.46714144945144653,
            0.3382083773612976,
            0.419028639793396,
            0.49621260166168213,
            -0.3851475715637207,
            -0.3736391067504883,
            -0.5609902143478394,
            -0.6228930354118347,
            -0.5080709457397461,
            -0.6766844391822815
          ]
        ],
        "biases": [
          0.01674892008304596,
          -0.029856374487280846,
          -0.06336238980293274
        ]
      },
      {
        "weights": [
          [
            5.864935398101807,
            0.05235394835472107,
            0.7161363959312439
          ],
          [
            1.3772153854370117,
            1.0942555665969849,
            -6.103724479675293
          ],
          [
            0.41498810052871704,
            -5.9152727127075195,
            -0.1407262533903122
          ]
        ],
        "biases": [
          -3.1253104209899902,
          1.6330499649047852,
          2.5645194053649902
        ]
      }
    ],
    "inputLookup": {
      "r": 0,
      "e": 1,
      "d": 2,
      "re": 3,
      "ed": 4,
      "d ": 5,
      "g": 6,
      "n": 7,
      "gr": 8,
      "ee": 9,
      "en": 10,
      "n ": 11,
      "b": 12,
      "l": 13,
      "u": 14,
      "bl": 15,
      "lu": 16,
      "ue": 17,
      "e ": 18,
      "o": 19,
      "a": 20,
      "or": 21,
      "ra": 22,
      "an": 23,
      "ng": 24,
      "ge": 25,
      "y": 26,
      "w": 27,
      "ye": 28,
      "el": 29,
      "ll": 30,
      "lo": 31,
      "ow": 32,
      "w ": 33,
      "c": 34,
      "cy": 35,
      "ya": 36,
      "m": 37,
      "t": 38,
      "ma": 39,
      "ag": 40,
      "nt": 41,
      "ta": 42,
      "a ": 43,
      "k": 44,
      "la": 45,
      "ac": 46,
      "ck": 47,
      "k ": 48,
      "h": 49,
      "i": 50,
      "wh": 51,
      "hi": 52,
      "it": 53,
      "te": 54
    },
    "inputLookupLength": 55,
    "outputLookup": {
      "r": 0,
      "g": 1,
      "b": 2
    },
    "outputLookupLength": 3,
    "options": {
      "inputSize": 0,
      "outputSize": 0,
      "binaryThresh": 0.5,
      "hiddenLayers": [
        3
      ],
      "activation": "sigmoid",
      "leakyReluAlpha": 0.01,
      "log": true,
      "logPeriod": 100
    },
    "trainOpts": {
      "activation": "sigmoid",
      "iterations": 20000,
      "errorThresh": 0.005,
      "log": true,
      "logPeriod": 100,
      "leakyReluAlpha": 0.01,
      "learningRate": 0.3,
      "momentum": 0.1,
      "callbackPeriod": 10,
      "timeout": "Infinity",
      "beta1": 0.9,
      "beta2": 0.999,
      "epsilon": 1e-8
    }
  },
  "encoderDictionary": [
    "red",
    "green",
    "blue",
    "orange",
    "yellow",
    "cyan",
    "magenta",
    "black",
    "white"
  ]
}