{
  "trainedNetwork": {
    "type": "NeuralNetwork",
    "sizes": [
      126,
      3,
      3
    ],
    "layers": [
      {
        "weights": [],
        "biases": []
      },
      {
        "weights": [
          [
            0.5484384298324585,
            0.5836037397384644,
            -0.24247293174266815,
            1.1237812042236328,
            0.5068040490150452,
            0.4864780902862549,
            0.43937134742736816,
            -0.031032482162117958,
            -0.17036162316799164,
            -0.6472979784011841,
            -0.6409705281257629,
            0.5997993350028992,
            0.7671553492546082,
            -0.3041233718395233,
            -0.22153423726558685,
            -0.16882021725177765,
            -0.4712539315223694,
            0.3177095055580139,
            0.6087607145309448,
            0.8812214732170105,
            -0.32638636231422424,
            0.42060402035713196,
            0.07921425253152847,
            0.17357666790485382,
            0.40886589884757996,
            0.7780700922012329,
            0.4152868092060089,
            0.24782982468605042,
            -0.8030589818954468,
            0.08011650294065475,
            -0.6580548286437988,
            -0.6360675692558289,
            0.56952303647995,
            -0.25458794832229614,
            0.19349345564842224,
            -0.04022221267223358,
            -0.36646267771720886,
            0.3857596218585968,
            -0.06921634823083878,
            -0.5401051640510559,
            -0.3500966429710388,
            0.12410871684551239,
            -0.007776932325214148,
            -0.054588720202445984,
            0.19592849910259247,
            0.13024292886257172,
            0.28891295194625854,
            0.08705917745828629,
            -0.8181697726249695,
            -0.8718744516372681,
            0.23658636212348938,
            -0.2800258696079254,
            -0.4753664433956146,
            -0.2411881536245346,
            -1.2728207111358643,
            0.4788287281990051,
            0.4867331385612488,
            1.0191435813903809,
            0.6495828628540039,
            0.18138380348682404,
            -0.7304551005363464,
            -0.9360830187797546,
            -1.0516605377197266,
            -0.332845002412796,
            -0.2706336975097656,
            -0.0108273234218359,
            -0.4496593475341797,
            0.17020751535892487,
            -0.09667525440454483,
            -0.0034100094344466925,
            -0.7508889436721802,
            -0.7873202562332153,
            -0.40855467319488525,
            0.024542374536395073,
            0.4633195698261261,
            0.29922372102737427,
            -0.03999509662389755,
            -0.010293437168002129,
            0.14704716205596924,
            0.27493128180503845,
            0.5523279905319214,
            0.14000466465950012,
            0.00430339016020298,
            0.29805341362953186,
            0.006651765201240778,
            0.6983269453048706,
            0.017272669821977615,
            0.5395786762237549,
            0.35276806354522705,
            0.5627737045288086,
            0.4777657091617584,
            0.4081837236881256,
            0.3901309669017792,
            -0.0738835483789444,
            -0.3308483064174652,
            -0.42577147483825684,
            -0.4730257987976074,
            0.445407897233963,
            0.0557791031897068,
            0.192499041557312,
            0.5871176719665527,
            -0.3750881552696228,
            0.5639344453811646,
            0.012828383594751358,
            -0.23634596168994904,
            -0.14552241563796997,
            -0.39629828929901123,
            -0.09281042218208313,
            0.03341344743967056,
            0.11026325821876526,
            0.19340169429779053,
            0.0742999017238617,
            -0.11155086755752563,
            -0.35977059602737427,
            -0.19813711941242218,
            -0.3440415561199188,
            -0.24945668876171112,
            -0.32144156098365784,
            -0.5104723572731018,
            -0.35183244943618774,
            -0.19813771545886993,
            -0.4212421476840973,
            -0.30620959401130676,
            -0.25534385442733765,
            -0.8819972276687622,
            -0.7869911789894104
          ],
          [
            0.3429792523384094,
            0.1465139389038086,
            0.4113316833972931,
            0.450865775346756,
            1.319706916809082,
            1.4296581745147705,
            0.06399299949407578,
            -0.2784839868545532,
            0.43382784724235535,
            0.20718178153038025,
            0.1547742486000061,
            -0.06263807415962219,
            -0.5233414769172668,
            -0.21535086631774902,
            -0.13965138792991638,
            -0.06667952984571457,
            -0.12274730205535889,
            0.009647761471569538,
            -0.5879983901977539,
            -0.8203718066215515,
            -0.14170126616954803,
            -0.6646019816398621,
            0.01407301239669323,
            0.24199190735816956,
            -0.607823371887207,
            -1.0501351356506348,
            -1.015897274017334,
            -0.5354124307632446,
            0.06587334722280502,
            0.43951326608657837,
            0.2454736977815628,
            0.14593569934368134,
            0.42337852716445923,
            -0.327170193195343,
            -0.2961439788341522,
            -0.11400678008794785,
            -0.590837836265564,
            -0.02338332310318947,
            0.6946362257003784,
            -0.44441473484039307,
            0.06269244849681854,
            -0.23144257068634033,
            -0.30589452385902405,
            -0.23677493631839752,
            -0.34055861830711365,
            0.1569167822599411,
            -0.23862765729427338,
            -0.03706550598144531,
            -0.7156846523284912,
            -0.8742786049842834,
            0.7402180433273315,
            0.4344300925731659,
            0.5599676966667175,
            0.9436154365539551,
            0.030086901038885117,
            0.10113529860973358,
            0.10816790908575058,
            0.021854490041732788,
            0.09690266847610474,
            -0.14114952087402344,
            -0.1531345695257187,
            -0.29874423146247864,
            -0.022834768518805504,
            -0.2160809189081192,
            0.40681466460227966,
            0.04002545773983002,
            0.2902674376964569,
            -0.3099791705608368,
            -0.3065829575061798,
            0.08000034838914871,
            -0.5378008484840393,
            -0.21258427202701569,
            0.055849820375442505,
            0.358700156211853,
            0.6956886053085327,
            0.47857049107551575,
            0.4707876741886139,
            -0.1528901904821396,
            0.0006942931213416159,
            -0.08467997610569,
            0.5587893724441528,
            -0.0014219864970073104,
            -0.20028457045555115,
            0.14879420399665833,
            -0.09620785713195801,
            0.13473816215991974,
            0.588230311870575,
            0.10796596109867096,
            0.10295716673135757,
            -0.05088186636567116,
            0.11971011757850647,
            0.07207946479320526,
            -0.08607784658670425,
            -0.3724917769432068,
            -1.0059372186660767,
            -1.1703572273254395,
            -0.9690605998039246,
            -0.31638744473457336,
            -0.15889041125774384,
            -0.44842660427093506,
            0.13427449762821198,
            0.10506387054920197,
            0.2991715967655182,
            0.3887996971607208,
            0.6706451177597046,
            0.2987372577190399,
            0.6719990968704224,
            0.4461178779602051,
            0.2604909837245941,
            0.5198191404342651,
            0.24586108326911926,
            0.39269423484802246,
            0.5348016619682312,
            0.5750160813331604,
            0.04461587220430374,
            0.3193564713001251,
            -0.026297423988580704,
            0.006470444146543741,
            0.06327521055936813,
            -0.0024873954243957996,
            0.16681979596614838,
            0.2274264544248581,
            0.020715488120913506,
            0.09761863946914673,
            -0.33142632246017456,
            -0.24463479220867157
          ],
          [
            0.6382118463516235,
            0.06961724162101746,
            0.4230028986930847,
            0.3332768976688385,
            0.7475026845932007,
            0.6033356189727783,
            -0.5102214217185974,
            0.1996362954378128,
            0.05904786288738251,
            0.5364750027656555,
            0.3965684473514557,
            0.13835865259170532,
            0.08192192018032074,
            0.3667161464691162,
            0.2091452032327652,
            -0.0037068044766783714,
            -0.09717990458011627,
            -0.2285400927066803,
            -0.4150497615337372,
            -0.3145943880081177,
            -0.28815361857414246,
            -0.11768006533384323,
            -0.0701485425233841,
            0.18777446448802948,
            0.07436530292034149,
            0.12825225293636322,
            -0.13575248420238495,
            0.2840438187122345,
            -0.6652709245681763,
            -1.330644965171814,
            -0.9932844042778015,
            -0.8324242830276489,
            1.0044517517089844,
            -0.21565592288970947,
            0.5234407186508179,
            0.9671699404716492,
            0.6216036677360535,
            0.7407777309417725,
            0.6388354301452637,
            -0.47792312502861023,
            0.6395422220230103,
            0.6123605966567993,
            0.8252876996994019,
            0.47070637345314026,
            0.668708324432373,
            0.6243686676025391,
            0.640328049659729,
            -0.47866126894950867,
            -0.6248270869255066,
            -0.6870412230491638,
            -0.22228729724884033,
            -0.11518102139234543,
            0.014614042825996876,
            0.8842373490333557,
            -0.4407096803188324,
            -0.09630931913852692,
            0.38615065813064575,
            -0.15566745400428772,
            -0.24336305260658264,
            -0.07605861872434616,
            0.2839384377002716,
            0.48334550857543945,
            0.29710903763771057,
            -0.1355852633714676,
            0.22886517643928528,
            -0.30320680141448975,
            0.1312531977891922,
            -0.19368614256381989,
            -0.09686549752950668,
            0.42876318097114563,
            0.12364832311868668,
            0.0874391570687294,
            0.17027512192726135,
            -0.31579720973968506,
            -0.20273517072200775,
            -0.0001937093329615891,
            0.4235062301158905,
            0.06104514002799988,
            0.16061685979366302,
            0.32361552119255066,
            -0.05699150264263153,
            0.07735228538513184,
            -0.10171239823102951,
            -0.06465008109807968,
            -0.1307094842195511,
            -0.11893060058355331,
            0.5635789632797241,
            0.07146111130714417,
            -0.46457844972610474,
            -0.3919682204723358,
            -0.15165680646896362,
            -0.3644542992115021,
            -0.22583378851413727,
            -0.049463625997304916,
            -0.27144569158554077,
            -0.5159024596214294,
            -0.25995779037475586,
            -0.7196667790412903,
            -0.16532693803310394,
            -0.8761955499649048,
            -0.7379986047744751,
            -0.33058711886405945,
            -0.6759790182113647,
            0.20293591916561127,
            0.16238142549991608,
            0.12868814170360565,
            0.1736106276512146,
            0.040670063346624374,
            0.08169712871313095,
            -0.26899001002311707,
            0.11255578696727753,
            0.11010368168354034,
            -0.25052088499069214,
            -0.2947317957878113,
            -0.38574257493019104,
            -0.05281270295381546,
            -0.21994662284851074,
            -0.10260473936796188,
            -0.1904388666152954,
            -0.3905811309814453,
            -0.1983858048915863,
            0.49852821230888367,
            0.655208170413971,
            0.4947616159915924,
            0.39089715480804443,
            0.47113141417503357
          ]
        ],
        "biases": [
          -0.17264534533023834,
          0.2099165916442871,
          -0.5595976710319519
        ]
      },
      {
        "weights": [
          [
            -2.6266398429870605,
            2.6205708980560303,
            5.501266002655029
          ],
          [
            -1.033597707748413,
            -6.049552917480469,
            2.8422181606292725
          ],
          [
            -5.82973051071167,
            0.8350465297698975,
            -1.436734676361084
          ]
        ],
        "biases": [
          -2.628296136856079,
          2.0151216983795166,
          2.8986823558807373
        ]
      }
    ],
    "inputLookup": {
      "r": 0,
      "e": 1,
      "d": 2,
      "re": 3,
      "ed": 4,
      "d ": 5,
      "b": 6,
      "i": 7,
      "g": 8,
      "h": 9,
      "t": 10,
      "br": 11,
      "ri": 12,
      "ig": 13,
      "gh": 14,
      "ht": 15,
      "t ": 16,
      "n": 17,
      "gr": 18,
      "ee": 19,
      "en": 20,
      "n ": 21,
      "l": 22,
      "m": 23,
      "li": 24,
      "im": 25,
      "me": 26,
      "e ": 27,
      "u": 28,
      "bl": 29,
      "lu": 30,
      "ue": 31,
      "o": 32,
      "a": 33,
      "or": 34,
      "ra": 35,
      "an": 36,
      "ng": 37,
      "ge": 38,
      "y": 39,
      "w": 40,
      "ye": 41,
      "el": 42,
      "ll": 43,
      "lo": 44,
      "ow": 45,
      "w ": 46,
      "c": 47,
      "cy": 48,
      "ya": 49,
      "ma": 50,
      "ag": 51,
      "nt": 52,
      "ta": 53,
      "a ": 54,
      "k": 55,
      "la": 56,
      "ac": 57,
      "ck": 58,
      "k ": 59,
      "wh": 60,
      "hi": 61,
      "it": 62,
      "te": 63,
      "s": 64,
      "v": 65,
      "si": 66,
      "il": 67,
      "lv": 68,
      "ve": 69,
      "er": 70,
      "r ": 71,
      "ay": 72,
      "y ": 73,
      "ro": 74,
      "wn": 75,
      "ch": 76,
      "ho": 77,
      "oc": 78,
      "co": 79,
      "ol": 80,
      "at": 81,
      "da": 82,
      "ar": 83,
      "rk": 84,
      "oo": 85,
      "on": 86,
      "iv": 87,
      "kn": 88,
      "ne": 89,
      "es": 90,
      "ss": 91,
      "s ": 92,
      "q": 93,
      "aq": 94,
      "qu": 95,
      "ua": 96,
      "ea": 97,
      "al": 98,
      "l ": 99,
      "na": 100,
      "av": 101,
      "vy": 102,
      "f": 103,
      "fu": 104,
      "uc": 105,
      "hs": 106,
      "ia": 107,
      "p": 108,
      "pu": 109,
      "ur": 110,
      "rp": 111,
      "pl": 112,
      "le": 113,
      "di": 114,
      "iu": 115,
      "um": 116,
      "m ": 117,
      "vi": 118,
      "io": 119,
      "et": 120,
      "sa": 121,
      "lm": 122,
      "mo": 123,
      "nd": 124,
      "de": 125
    },
    "inputLookupLength": 126,
    "outputLookup": {
      "r": 0,
      "g": 1,
      "b": 2
    },
    "outputLookupLength": 3,
    "options": {
      "inputSize": 0,
      "outputSize": 0,
      "binaryThresh": 0.5,
      "hiddenLayers": [
        3
      ],
      "activation": "sigmoid",
      "leakyReluAlpha": 0.01,
      "log": true,
      "logPeriod": 100
    },
    "trainOpts": {
      "activation": "sigmoid",
      "iterations": 20000,
      "errorThresh": 0.005,
      "log": true,
      "logPeriod": 100,
      "leakyReluAlpha": 0.01,
      "learningRate": 0.3,
      "momentum": 0.1,
      "callbackPeriod": 10,
      "timeout": "Infinity",
      "beta1": 0.9,
      "beta2": 0.999,
      "epsilon": 1e-8
    }
  },
  "encoderDictionary": [
    "red",
    "bright",
    "green",
    "lime",
    "blue",
    "orange",
    "yellow",
    "cyan",
    "magenta",
    "black",
    "white",
    "silver",
    "gray",
    "brown",
    "tan",
    "chocolate",
    "light",
    "dark",
    "maroon",
    "olive",
    "darkness",
    "aqua",
    "teal",
    "navy",
    "fuchsia",
    "purple",
    "medium",
    "violet",
    "salmon",
    "lavender"
  ]
}