{
  "trainedNetwork": {
    "type": "NeuralNetwork",
    "sizes": [
      55,
      3,
      3
    ],
    "layers": [
      {
        "weights": [],
        "biases": []
      },
      {
        "weights": [
          [
            1.4442116022109985,
            -0.007512492593377829,
            0.5743789672851562,
            0.990807056427002,
            0.4049755334854126,
            0.4146319031715393,
            0.6974284648895264,
            -0.5883741974830627,
            0.5362623929977417,
            0.5892846584320068,
            -0.06908555328845978,
            -0.4709351658821106,
            -0.09177767485380173,
            0.3258103132247925,
            -0.9464592933654785,
            -0.14645542204380035,
            -0.7196113467216492,
            -0.6420367360115051,
            -0.6209923028945923,
            0.8267393708229065,
            -0.042798176407814026,
            0.5191383957862854,
            0.6424128413200378,
            -0.5130413174629211,
            0.5497167110443115,
            0.1276591718196869,
            -0.4692283570766449,
            -0.18096977472305298,
            0.5463649034500122,
            0.42017680406570435,
            0.5104150176048279,
            0.47369658946990967,
            0.514548122882843,
            0.42939502000808716,
            -0.14112532138824463,
            -0.830217182636261,
            -0.8719147443771362,
            -0.43742504715919495,
            -0.7277328968048096,
            -0.5737742781639099,
            -0.3776291608810425,
            -0.4386804401874542,
            -0.45171764492988586,
            -0.36991578340530396,
            0.6759335398674011,
            0.6173151135444641,
            0.8029453158378601,
            0.6846647262573242,
            0.4894455075263977,
            -0.3294042646884918,
            -0.4896388351917267,
            -0.32923105359077454,
            -0.30682361125946045,
            -0.41534268856048584,
            -0.4746350347995758
          ],
          [
            0.3260687589645386,
            0.6924093961715698,
            0.5457718968391418,
            -0.09227664768695831,
            0.7004210352897644,
            0.5701912641525269,
            0.040646158158779144,
            -0.5297036170959473,
            -0.9139145612716675,
            -0.9130477905273438,
            -0.5513454675674438,
            -1.367056965827942,
            -0.7994706034660339,
            -0.6014710068702698,
            -0.700552225112915,
            -0.9685571193695068,
            -0.6325807571411133,
            -0.3674789369106293,
            0.20192307233810425,
            0.6538997888565063,
            -0.056764550507068634,
            0.2632973790168762,
            0.3170822560787201,
            0.0056162490509450436,
            0.4214061498641968,
            0.564294159412384,
            -0.12297800928354263,
            0.8700879216194153,
            0.3196471035480499,
            0.23433178663253784,
            0.2357328087091446,
            0.49004432559013367,
            0.4157353639602661,
            0.3427695035934448,
            -0.8519729375839233,
            -0.39594417810440063,
            -0.3931809365749359,
            0.45521634817123413,
            0.9107979536056519,
            0.5594443678855896,
            0.2849838137626648,
            0.44905126094818115,
            0.2131315916776657,
            0.21887588500976562,
            -0.4739457964897156,
            -0.1483614146709442,
            -0.4290202260017395,
            -0.37921029329299927,
            -0.3280818462371826,
            0.41561347246170044,
            0.24355877935886383,
            0.29371774196624756,
            0.34974899888038635,
            0.35766085982322693,
            0.43848922848701477
          ],
          [
            -0.07077089697122574,
            0.21326139569282532,
            0.7943666577339172,
            0.220449760556221,
            0.9407805800437927,
            0.6860865354537964,
            -0.38337117433547974,
            -0.6009668707847595,
            -0.6546122431755066,
            -0.8647659420967102,
            -0.037388335913419724,
            -1.0353288650512695,
            0.6164247989654541,
            0.5133001804351807,
            0.556838870048523,
            0.8405535221099854,
            0.6292976140975952,
            0.616828978061676,
            -0.23496897518634796,
            -0.48977845907211304,
            0.2005809247493744,
            -0.08194340020418167,
            -0.04289286583662033,
            -0.4306691288948059,
            -0.06962858885526657,
            0.5750640630722046,
            -0.7484428882598877,
            -0.8137551546096802,
            -0.5851067900657654,
            -0.19370201230049133,
            -0.290740430355072,
            -0.5102039575576782,
            -0.4195985794067383,
            -0.5660697221755981,
            -0.03344619646668434,
            -0.3623369336128235,
            -0.546908438205719,
            0.7015398144721985,
            0.16457708179950714,
            0.43391093611717224,
            0.5879079103469849,
            0.5210070610046387,
            0.4418911635875702,
            0.6805278658866882,
            0.30087509751319885,
            0.2653677463531494,
            0.28541454672813416,
            0.08376884460449219,
            0.18764899671077728,
            -0.6331462264060974,
            -0.32764071226119995,
            -0.5305793285369873,
            -0.4967035949230194,
            -0.33219292759895325,
            -0.41692274808883667
          ]
        ],
        "biases": [
          -0.17698954045772552,
          -0.026984451338648796,
          0.08248640596866608
        ]
      },
      {
        "weights": [
          [
            -0.16963818669319153,
            5.854175090789795,
            -0.547486424446106
          ],
          [
            0.16335956752300262,
            0.2697790861129761,
            -5.326029300689697
          ],
          [
            -5.926371097564697,
            0.49378320574760437,
            0.8493970036506653
          ]
        ],
        "biases": [
          -2.335374116897583,
          2.2470483779907227,
          2.057971954345703
        ]
      }
    ],
    "inputLookup": {
      "r": 0,
      "e": 1,
      "d": 2,
      "re": 3,
      "ed": 4,
      "d ": 5,
      "g": 6,
      "n": 7,
      "gr": 8,
      "ee": 9,
      "en": 10,
      "n ": 11,
      "b": 12,
      "l": 13,
      "u": 14,
      "bl": 15,
      "lu": 16,
      "ue": 17,
      "e ": 18,
      "o": 19,
      "a": 20,
      "or": 21,
      "ra": 22,
      "an": 23,
      "ng": 24,
      "ge": 25,
      "y": 26,
      "w": 27,
      "ye": 28,
      "el": 29,
      "ll": 30,
      "lo": 31,
      "ow": 32,
      "w ": 33,
      "c": 34,
      "cy": 35,
      "ya": 36,
      "m": 37,
      "t": 38,
      "ma": 39,
      "ag": 40,
      "nt": 41,
      "ta": 42,
      "a ": 43,
      "k": 44,
      "la": 45,
      "ac": 46,
      "ck": 47,
      "k ": 48,
      "h": 49,
      "i": 50,
      "wh": 51,
      "hi": 52,
      "it": 53,
      "te": 54
    },
    "inputLookupLength": 55,
    "outputLookup": {
      "r": 0,
      "g": 1,
      "b": 2
    },
    "outputLookupLength": 3,
    "options": {
      "inputSize": 0,
      "outputSize": 0,
      "binaryThresh": 0.5,
      "hiddenLayers": [
        3
      ],
      "activation": "sigmoid",
      "leakyReluAlpha": 0.01,
      "log": true,
      "logPeriod": 100
    },
    "trainOpts": {
      "activation": "sigmoid",
      "iterations": 20000,
      "errorThresh": 0.005,
      "log": true,
      "logPeriod": 100,
      "leakyReluAlpha": 0.01,
      "learningRate": 0.3,
      "momentum": 0.1,
      "callbackPeriod": 10,
      "timeout": "Infinity",
      "beta1": 0.9,
      "beta2": 0.999,
      "epsilon": 1e-8
    }
  }
}